\data\
ngram 1=63
ngram 2=2451

\1-grams:
-99.999	<s>	-3.8463
-1.8128	1	-1.5619
-1.8059	2	-1.7637
-1.8109	3	-1.6145
-1.8955	4	-1.2786
-2.3040	5	-0.9235
-1.6178	6	-1.8460
-2.6135	7	-1.1243
-1.7779	8	-1.2424
-1.8797	9	-1.1324
-1.8275	a	-1.4561
-1.8853	b	-1.4663
-2.2523	c	-0.8079
-1.7802	d	-1.3646
-1.5643	e	-1.6726
-1.7903	~	-1.6093
-1.8957	-	-1.9130
-1.6507	h	-1.8065
-2.1880	i	-0.9611
-3.0727	j	-0.4561
-2.3668	,	-0.5682
-3.7512	.	-0.4669
-2.2081	|	-1.2115
-1.9375	{	-1.0560
-1.8099	o	-1.2085
-1.8208	f	-1.3545
-2.0902	g	-1.2680
-2.0482	?	-1.2921
-2.1944	!	-1.5225
-2.3070	+	-1.4766
-1.5380	u	-1.4385
-1.2987	}	-1.7564
-1.5009	[	-1.3477
-2.1605	x	-0.9988
-1.5871	]	-1.4345
-1.5482	@	-1.8608
-1.5202	A	-1.3885
-1.6293	B	-1.2278
-1.3724	C	-1.4028
-2.0891	D	-0.9452
-2.3356	E	-1.6130
-1.9479	F	-1.0610
-2.6833	G	-0.8892
-1.7532	H	-1.3990
-2.2163	I	-0.9220
-1.7439	J	-1.9153
-1.7372	K	-1.1174
-1.4958	L	-1.5232
-1.3754	M	-1.6573
-2.0466	N	-1.0698
-1.2974	O	-1.6366
-1.5698	P	-1.5806
-1.4084	Q	-1.8852
-2.2940	R	-0.7892
-2.4672	S	-1.1206
-2.4427	T	-0.6577
-2.0129	U	-0.9818
-1.8664	V	-1.2232
-1.8206	W	-2.0586
-2.1683	X	-1.7857
-1.6001	Y	-1.4623
-2.9930	Z	-0.6934
-1.5984	</s>

\2-grams:
-0.0001	<s> O
-2.9554	1 4
-2.9554	1 6
-2.2564	1 8
-3.6544	1 9
-1.4475	1 b
-1.3100	1 e
-2.4239	1 ~
-1.2344	1 -
-3.1772	1 |
-2.6130	1 {
-1.8550	1 f
-1.9468	1 ?
-3.1772	1 !
-2.6130	1 +
-3.1772	1 }
-3.6544	1 [
-1.1267	1 @
-1.0945	1 A
-1.2119	1 B
-1.1345	1 C
-2.2926	1 D
-1.7050	1 E
-3.6544	1 F
-3.6544	1 I
-1.2214	1 J
-1.6676	1 K
-0.5866	1 L
-1.4064	1 M
-2.1359	1 N
-3.6544	1 O
-1.1041	1 Q
-2.9554	1 R
-2.0862	1 V
-2.7001	1 W
-2.7001	1 X
-2.1103	1 Y
-2.6130	1 Z
-3.1841	2 3
-2.8161	2 6
-2.7070	2 8
-1.5713	2 b
-3.6612	2 c
-1.4232	2 e
-2.7070	2 ~
-1.2315	2 -
-3.6612	2 h
-3.6612	2 ,
-3.6612	2 |
-1.2685	2 f
-1.4823	2 ?
-3.6612	2 ]
-0.9511	2 @
-1.1974	2 A
-1.1494	2 B
-0.7512	2 C
-1.5440	2 D
-1.5059	2 E
-3.6612	2 I
-1.4653	2 J
-2.0278	2 K
-2.4308	2 L
-1.1914	2 M
-1.5857	2 N
-1.1944	2 Q
-1.9710	2 R
-1.3848	2 V
-3.1841	2 W
-2.1427	2 X
-1.5507	2 Y
-2.6199	2 Z
-3.6563	3 8
-1.3844	3 b
-1.5956	3 e
-1.3753	3 ~
-1.3320	3 -
-3.6563	3 ,
-3.6563	3 .
-2.9573	3 |
-3.6563	3 {
-3.6563	3 o
-1.6189	3 f
-1.6972	3 ?
-2.3341	3 !
-2.2583	3 +
-3.6563	3 u
-2.9573	3 }
-3.6563	3 x
-1.5457	3 @
-1.2965	3 A
-1.0079	3 B
-0.7948	3 C
-1.4083	3 D
-1.5807	3 E
-2.2583	3 I
-1.2707	3 J
-1.7698	3 K
-2.1378	3 L
-1.1210	3 M
-1.7812	3 N
-2.1939	3 O
-1.1235	3 Q
-1.8050	3 R
-1.2330	3 V
-2.4802	3 W
-2.8112	3 X
-1.4284	3 Y
-2.7020	3 Z
-3.5717	4 1
-2.8727	4 3
-3.5717	4 5
-2.5303	4 6
-1.5674	4 8
-2.1093	4 b
-1.9589	4 e
-2.3956	4 ~
-1.4350	4 -
-3.5717	4 h
-3.5717	4 ,
-3.5717	4 |
-2.3956	4 {
-2.8727	4 o
-1.2685	4 f
-1.7864	4 ?
-2.7266	4 +
-2.8727	4 u
-2.0532	4 }
-2.5303	4 [
-1.7456	4 @
-0.8667	4 A
-2.1738	4 B
-1.2516	4 C
-1.3093	4 D
-2.0532	4 E
-3.0946	4 I
-2.1738	4 J
-1.5505	4 K
-0.4228	4 L
-1.2862	4 M
-2.3956	4 N
-3.5717	4 O
-3.5717	4 P
-1.6741	4 Q
-1.9185	4 R
-2.5303	4 V
-2.2100	4 W
-2.7266	4 X
-1.7588	4 Y
-3.5717	4 Z
-2.4642	5 2
-1.9871	5 3
-3.1632	5 4
-1.7008	5 6
-1.3502	5 8
-2.2089	5 9
-2.4642	5 b
-1.6191	5 e
-2.4642	5 ~
-1.0876	5 -
-1.9327	5 h
-2.4642	5 i
-2.4642	5 |
-1.6718	5 {
-2.3181	5 o
-2.2089	5 f
-2.4642	5 ?
-2.3181	5 +
-2.0492	5 }
-2.3181	5 [
-1.9871	5 @
-1.7318	5 A
-1.7652	5 B
-0.6081	5 C
-1.7652	5 E
-2.2089	5 F
-2.6860	5 G
-2.4642	5 I
-1.9327	5 J
-1.0328	5 K
-2.3181	5 L
-1.2881	5 M
-2.6860	5 N
-1.8409	5 O
-0.8643	5 Q
-2.1218	5 R
-3.1632	5 V
-1.4389	5 W
-3.1632	5 X
-1.7008	5 Y
-3.1632	5 Z
-3.8494	6 1
-3.3723	6 4
-3.8494	6 5
-3.8494	6 9
-1.1619	6 b
-3.8494	6 c
-1.4603	6 e
-1.8366	6 ~
-1.9409	6 -
-3.8494	6 j
-3.1504	6 |
-1.4069	6 f
-1.8717	6 ?
-2.2812	6 !
-1.9744	6 +
-3.8494	6 }
-1.4638	6 @
-0.8995	6 A
-0.9658	6 B
-0.9749	6 C
-3.8494	6 D
-2.0233	6 E
-3.3723	6 F
-2.7355	6 I
-1.2377	6 J
-1.8904	6 K
-1.8041	6 L
-1.0677	6 M
-2.4877	6 N
-1.9982	6 O
-1.4638	6 Q
-1.7321	6 R
-1.0823	6 V
-1.3651	6 W
-3.1504	6 X
-1.3595	6 Y
-2.8537	7 5
-0.9561	7 b
-1.5315	7 e
-1.7398	7 ~
-2.1547	7 -
-2.3766	7 i
-1.5749	7 f
-1.8995	7 ?
-2.8537	7 x
-0.6578	7 @
-1.8995	7 A
-1.4920	7 B
-1.7398	7 C
-2.8537	7 E
-0.8409	7 J
-1.8123	7 K
-2.0086	7 L
-0.8163	7 M
-2.8537	7 N
-1.8995	7 O
-1.1461	7 Q
-2.1547	7 R
-1.7398	7 V
-1.8995	7 W
-2.8537	7 X
-1.6776	7 Y
-2.2914	8 1
-2.8442	8 2
-2.4589	8 3
-2.4589	8 4
-2.7351	8 5
-2.2914	8 6
-3.6893	8 8
-2.1452	8 9
-1.4413	8 b
-1.1515	8 e
-1.7599	8 ~
-1.5526	8 -
-2.2269	8 h
-2.3671	8 i
-3.6893	8 ,
-2.8442	8 |
-2.8442	8 {
-1.8028	8 o
-1.2531	8 f
-1.8764	8 ?
-2.4106	8 !
-1.7702	8 +
-2.2579	8 u
-1.5787	8 }
-1.8900	8 [
-1.3109	8 @
-1.5924	8 A
-1.3146	8 B
-1.4666	8 C
-3.6893	8 D
-2.9903	8 E
-2.7351	8 F
-3.6893	8 G
-2.1452	8 I
-1.5590	8 J
-1.5401	8 K
-1.2437	8 L
-1.1828	8 M
-2.1452	8 N
-1.0449	8 O
-1.2406	8 Q
-2.4589	8 R
-1.7303	8 V
-1.4365	8 W
-2.0765	8 X
-1.1153	8 Y
-2.8442	8 Z
-2.1561	9 1
-1.9964	9 2
-2.4114	9 3
-2.0690	9 4
-3.5875	9 5
-2.1251	9 6
-1.4837	9 8
-2.4735	9 9
-1.5919	9 b
-1.1513	9 e
-2.1895	9 ~
-1.4028	9 -
-1.8973	9 h
-2.7424	9 i
-2.8885	9 ,
-3.1104	9 |
-1.8022	9 {
-2.2258	9 o
-1.6684	9 f
-1.9154	9 ?
-2.7424	9 !
-2.3570	9 +
-2.0690	9 u
-1.3203	9 }
-1.8799	9 [
-1.1482	9 @
-1.3298	9 A
-1.2431	9 B
-1.0810	9 C
-2.2653	9 D
-2.0193	9 E
-2.0961	9 F
-2.8885	9 I
-1.9747	9 J
-1.3346	9 K
-1.7746	9 L
-1.1513	9 M
-2.3570	9 N
-2.0193	9 O
-1.1513	9 Q
-3.1104	9 R
-2.8885	9 U
-1.5832	9 V
-2.5461	9 W
-1.9154	9 X
-1.1513	9 Y
-1.2723	a 1
-1.2914	a 2
-1.2761	a 3
-1.5030	a 4
-1.7532	a 5
-1.6268	a 6
-2.7946	a 7
-1.8688	a 8
-1.0727	a 9
-2.9407	a e
-1.3725	a h
-1.1497	a i
-3.1626	a j
-3.6397	a ,
-3.6397	a |
-1.4607	a {
-2.0062	a o
-3.1626	a f
-3.1626	a !
-3.1626	a +
-1.1069	a u
-1.3195	a }
-0.9195	a [
-3.6397	a @
-1.2164	a A
-3.6397	a C
-1.4905	a F
-1.7884	a G
-3.6397	a I
-3.1626	a K
-1.0588	a L
-2.7946	a M
-2.4636	a O
-3.6397	a P
-2.9407	a R
-1.8544	a S
-2.4092	a T
-2.4636	a U
-3.1626	a V
-2.6854	a W
-1.9154	a X
-1.9495	a Y
-3.5818	b 1
-3.5818	b 3
-3.5818	b 4
-2.8829	b 6
-2.5404	b 8
-0.0606	b a
-2.4679	b c
-1.8916	b d
-2.4679	b ~
-3.5818	b h
-2.0905	b i
-3.1047	b j
-3.5818	b ,
-2.7367	b {
-2.4679	b f
-3.1047	b !
-3.5818	b +
-2.7367	b u
-2.1839	b }
-2.4679	b [
-2.0136	b x
-2.4679	b ]
-2.2201	b A
-2.3031	b B
-2.4679	b C
-2.4679	b H
-3.5818	b I
-2.7367	b L
-2.3514	b M
-2.6276	b N
-2.2596	b O
-1.9484	b P
-2.7367	b R
-3.5818	b U
-2.5404	b V
-2.8829	b W
-3.1047	b X
-2.3514	b Y
-1.3064	c 1
-1.6238	c 2
-1.9844	c 3
-2.2606	c 4
-1.7835	c 6
-2.7377	c 7
-1.1618	c 8
-1.5814	c 9
-1.9844	c b
-1.6708	c e
-1.9844	c ~
-1.4745	c h
-1.8531	c i
-2.3697	c ,
-1.5073	c |
-1.3064	c {
-1.1695	c o
-1.8926	c f
-1.7524	c ?
-2.0388	c !
-3.2148	c +
-1.2105	c u
-1.0910	c }
-1.2854	c [
-1.5427	c @
-1.7835	c A
-3.2148	c B
-3.2148	c C
-1.9361	c F
-2.0388	c G
-2.2606	c I
-1.9844	c J
-2.1735	c K
-2.0388	c L
-1.6238	c M
-3.2148	c N
-1.5246	c O
-1.3515	c Q
-2.1735	c R
-2.0388	c S
-1.8169	c T
-1.4590	c U
-2.2606	c V
-3.2148	c W
-1.8169	c X
-2.1009	c Y
-1.5256	d 1
-1.7785	d 2
-1.4856	d 3
-1.6263	d 4
-1.6263	d 5
-1.4802	d 6
-2.1685	d 7
-1.7002	d 8
-1.7894	d 9
-2.4082	d b
-1.4591	d h
-2.5109	d i
-3.2099	d j
-2.4082	d ,
-2.8419	d |
-2.0338	d {
-1.2908	d o
-1.7280	d f
-2.4565	d ?
-1.9466	d !
-1.8005	d +
-0.9837	d u
-0.8351	d }
-1.3234	d [
-1.9968	d @
-1.7679	d A
-2.9880	d B
-3.2099	d C
-1.7185	d F
-1.8119	d I
-3.2099	d J
-1.7894	d K
-1.1672	d L
-1.8237	d M
-2.7328	d N
-1.1200	d O
-2.8419	d Q
-3.6870	d R
-2.5109	d S
-2.1956	d T
-1.4967	d U
-2.4565	d V
-1.7785	d W
-2.2246	d X
-1.6417	d Y
-3.6870	d Z
-3.4258	e 2
-3.9029	e 4
-3.9029	e 5
-2.6241	e 6
-3.9029	e 7
-3.2039	e 8
-1.4360	e a
-3.9029	e b
-2.3844	e c
-0.3055	e d
-1.8130	e ~
-3.9029	e h
-3.2039	e i
-3.4258	e j
-1.8130	e ,
-3.9029	e o
-1.9251	e f
-2.3844	e g
-2.5049	e !
-2.3347	e +
-2.7889	e u
-2.3118	e }
-3.2039	e [
-0.6666	e x
-2.1625	e ]
-2.4115	e A
-1.9944	e B
-1.9251	e C
-3.9029	e F
-1.9344	e H
-2.3844	e I
-2.2308	e K
-2.2694	e L
-1.7790	e M
-2.5807	e N
-1.5245	e O
-1.6404	e P
-2.3118	e R
-2.1175	e V
-2.0395	e W
-3.2039	e X
-1.6500	e Y
-3.9029	e Z
-2.9779	~ 1
-1.5096	~ 2
-1.6992	~ 3
-2.6355	~ 5
-0.5824	~ 6
-1.9210	~ 7
-1.3651	~ 8
-3.1998	~ b
-3.6769	~ e
-1.0803	~ h
-3.1998	~ i
-3.1998	~ ,
-3.6769	~ |
-1.6812	~ {
-1.2439	~ o
-2.8318	~ f
-3.6769	~ ?
-3.1998	~ +
-1.0982	~ u
-0.6128	~ }
-0.9840	~ [
-3.6769	~ @
-3.6769	~ A
-3.6769	~ B
-3.6769	~ C
-1.7578	~ F
-3.1998	~ I
-2.7226	~ J
-2.8318	~ K
-2.6355	~ M
-3.6769	~ N
-3.6769	~ O
-2.9779	~ Q
-2.8318	~ S
-3.6769	~ V
-3.1998	~ W
-2.0530	- 1
-1.8994	- 2
-1.5586	- 3
-1.7326	- 4
-2.2493	- 5
-1.0164	- 6
-2.8725	- 7
-1.0413	- 8
-2.5301	- 9
-1.6524	- h
-1.6320	- i
-1.8639	- ,
-2.7264	- .
-1.4816	- {
-1.9587	- o
-2.8725	- +
-0.8734	- u
-0.5466	- }
-0.7592	- [
-3.0944	- A
-3.5715	- C
-1.7082	- F
-3.5715	- L
-2.4575	- S
-2.3954	- T
-2.8725	- U
-3.8165	h 1
-3.8165	h 3
-2.9714	h 6
-1.8037	h 8
-2.6404	h b
-1.1820	h e
-2.1444	h ~
-1.3709	h -
-3.8165	h i
-3.1175	h |
-1.9904	h {
-1.8770	h f
-3.8165	h g
-1.8871	h ?
-3.3394	h !
-2.6404	h +
-3.3394	h }
-3.3394	h x
-1.0420	h @
-0.9053	h A
-1.3586	h B
-0.7892	h C
-2.1633	h D
-1.4605	h E
-1.7712	h J
-2.0606	h K
-1.0898	h L
-1.1491	h M
-1.7791	h N
-3.8165	h P
-1.3237	h Q
-2.8623	h R
-1.0963	h V
-2.8623	h W
-1.6551	h Y
-2.0761	h Z
-1.9175	i 1
-2.4341	i 2
-2.2378	i 3
-2.4341	i 4
-1.4159	i 6
-1.8168	i 9
-1.5716	i b
-1.1964	i e
-1.9570	i ~
-2.5802	i -
-2.0005	i h
-2.3250	i |
-2.8021	i {
-2.3250	i o
-1.3298	i f
-1.4939	i ?
-2.3250	i !
-1.9175	i +
-1.8813	i u
-1.5388	i }
-1.5549	i [
-1.6457	i @
-1.5388	i A
-1.7607	i B
-1.6457	i C
-2.5802	i F
-1.5233	i I
-1.4531	i J
-1.3015	i K
-1.9175	i L
-1.1893	i M
-2.4341	i N
-0.9717	i O
-1.0889	i Q
-2.1031	i R
-3.2792	i T
-2.8021	i U
-2.1031	i V
-1.7607	i W
-3.2792	i X
-1.0264	i Y
-3.2792	i Z
-2.3945	j 1
-2.3945	j 3
-1.9173	j 4
-2.3945	j 6
-2.3945	j 8
-1.4402	j b
-1.0722	j ~
-1.5494	j h
-1.3531	j |
-1.9173	j f
-2.3945	j !
-2.3945	j +
-1.6955	j u
-2.3945	j }
-1.9173	j [
-1.6955	j @
-1.6955	j C
-1.9173	j F
-1.9173	j I
-0.5815	j J
-1.9173	j K
-2.3945	j L
-1.4402	j M
-1.2805	j O
-1.0722	j Q
-2.3945	j R
-2.3945	j U
-1.6955	j V
-2.3945	j W
-1.6955	j X
-1.5494	j Y
-2.4014	, 1
-2.6232	, 2
-1.9243	, 3
-3.1004	, 4
-2.6232	, 5
-1.4102	, 6
-2.6232	, 8
-2.6232	, 9
-1.7386	, b
-3.1004	, c
-2.4014	, d
-1.4102	, e
-1.6090	, ~
-1.6380	, h
-1.5563	, i
-1.7782	, |
-2.6232	, {
-3.1004	, o
-1.6090	, f
-2.2553	, ?
-2.2553	, !
-3.1004	, +
-1.8216	, u
-1.4669	, }
-1.9864	, [
-3.1004	, x
-1.5563	, @
-1.7782	, A
-1.6690	, B
-3.1004	, C
-2.6232	, F
-2.6232	, I
-1.8216	, J
-1.4472	, K
-1.9864	, L
-0.9272	, M
-1.9864	, N
-0.8573	, O
-2.4014	, P
-0.8573	, Q
-3.1004	, R
-2.6232	, U
-2.1461	, V
-1.8699	, W
-2.2553	, X
-1.1413	, Y
-1.7160	. 6
-1.7160	. h
-0.6746	. ?
-1.7160	. }
-1.2389	. @
-1.7160	. J
-1.7160	. K
-1.7160	. M
-0.6021	. O
-1.2389	. Q
-1.7160	. W
-1.2389	. X
-2.7820	| 1
-3.2591	| 2
-2.4140	| 3
-2.4140	| 4
-3.2591	| 5
-2.7820	| 6
-2.5601	| 8
-2.5601	| 9
-3.2591	| b
-3.2591	| c
-1.5689	| ~
-2.4140	| h
-2.3049	| i
-3.2591	| j
-1.5032	| ,
-2.7820	| .
-3.2591	| {
-1.5348	| f
-3.2591	| g
-3.2591	| !
-2.7820	| u
-1.9804	| }
-2.5601	| [
-3.2591	| @
-1.1984	| A
-0.6581	| B
-0.8918	| C
-3.2591	| F
-2.7820	| H
-2.5601	| K
-1.3726	| L
-1.0801	| M
-2.1452	| N
-1.4883	| R
-2.0287	| V
-0.6647	| W
-2.3049	| X
-1.4883	| Y
-2.5754	{ 1
-2.8307	{ 2
-2.2992	{ 3
-2.5754	{ 4
-2.8307	{ 5
-1.8576	{ 6
-2.2075	{ 8
-2.4883	{ 9
-1.4844	{ b
-3.0526	{ c
-1.1405	{ e
-1.8765	{ ~
-1.5612	{ -
-2.4157	{ h
-2.5754	{ i
-3.5297	{ j
-2.8307	{ ,
-3.5297	{ .
-3.0526	{ |
-3.5297	{ {
-2.1317	{ o
-1.7303	{ f
-2.0673	{ ?
-2.5754	{ !
-1.7893	{ +
-1.8054	{ u
-1.2095	{ }
-1.3930	{ [
-2.8307	{ x
-1.2352	{ @
-1.3507	{ A
-1.3283	{ B
-1.4398	{ C
-2.0112	{ E
-2.4883	{ F
-1.8576	{ I
-1.5254	{ J
-1.3683	{ K
-1.7893	{ L
-1.1586	{ M
-1.9386	{ N
-1.6908	{ O
-1.2441	{ Q
-1.7168	{ R
-1.4191	{ V
-1.6212	{ W
-2.4157	{ X
-1.1441	{ Y
-2.5754	{ Z
-2.4268	o 1
-2.2955	o 2
-2.7030	o 3
-2.0662	o 4
-2.5433	o 5
-2.5433	o 6
-2.4268	o 8
-2.4268	o 9
-1.4726	o b
-1.1934	o e
-2.4812	o ~
-1.0519	o -
-2.4812	o h
-2.9583	o i
-3.6572	o .
-2.7030	o |
-2.4268	o {
-3.6572	o o
-1.7939	o f
-2.1387	o ?
-2.3350	o !
-2.3785	o +
-2.2593	o u
-1.7822	o }
-2.9583	o [
-3.1801	o x
-1.1245	o @
-1.4345	o A
-1.2681	o B
-1.1119	o C
-2.1132	o D
-2.2259	o E
-2.4268	o F
-2.5433	o I
-1.5019	o J
-1.3948	o K
-2.3350	o L
-1.1322	o M
-1.0541	o N
-1.6888	o O
-0.9954	o Q
-2.2259	o R
-1.6198	o V
-1.9014	o W
-2.1659	o X
-1.6042	o Y
-2.4812	o Z
-1.5636	f 1
-1.7379	f 2
-1.5565	f 3
-1.0587	f 4
-1.8756	f 5
-1.4850	f 6
-2.1840	f 7
-1.0678	f 8
-1.4342	f 9
-2.3677	f b
-2.5325	f e
-2.3242	f ~
-1.5426	f h
-1.5636	f i
-2.2485	f j
-2.3242	f ,
-2.2847	f |
-1.3389	f {
-1.6336	f o
-3.6464	f ?
-2.6922	f !
-1.1266	f u
-1.2828	f }
-1.3936	f [
-2.1023	f @
-1.2572	f A
-3.6464	f B
-3.6464	f C
-2.0336	f F
-3.1693	f G
-2.2150	f I
-2.3677	f J
-2.2847	f K
-1.0609	f L
-1.5565	f M
-2.5325	f N
-1.6596	f O
-1.2365	f Q
-1.9221	f S
-2.2847	f T
-2.1023	f U
-2.9474	f V
-2.6050	f W
-1.7713	f X
-1.2466	g 1
-1.3239	g 2
-1.4579	g 3
-1.6867	g 4
-2.3355	g 5
-2.0152	g 6
-3.3769	g 7
-1.4374	g 8
-1.9456	g 9
-2.8998	g e
-1.1595	g h
-1.8856	g i
-3.3769	g j
-2.8998	g ,
-1.6211	g {
-1.5257	g o
-2.2630	g f
-2.8998	g +
-1.0652	g u
-1.5776	g }
-2.6780	g [
-1.4475	g A
-3.3769	g B
-2.3355	g C
-1.1005	g F
-2.4227	g G
-2.6780	g I
-0.7021	g L
-1.9145	g M
-2.4227	g N
-2.8998	g O
-2.6780	g Q
-2.4227	g R
-1.4793	g S
-2.2009	g T
-1.7642	g U
-1.8087	g W
-1.7435	g X
-1.1980	g Y
-3.4190	? 1
-3.4190	? 2
-3.4190	? 3
-3.4190	? 4
-2.7200	? 6
-2.1402	? 8
-1.9876	? a
-2.3776	? c
-1.6947	? d
-3.4190	? e
-3.4190	? h
-2.4647	? i
-2.1885	? {
-3.4190	? o
-2.7200	? f
-0.0990	? g
-3.4190	? !
-2.9418	? u
-1.7658	? }
-2.3776	? x
-2.1402	? ]
-2.4647	? A
-2.7200	? B
-1.6336	? C
-3.4190	? F
-2.1885	? H
-2.7200	? I
-3.4190	? K
-2.0572	? L
-2.4647	? M
-2.9418	? N
-2.9418	? O
-2.0967	? P
-2.5739	? R
-2.3776	? W
-1.9876	? X
-1.6196	? Y
-1.1424	! 1
-1.0151	! 2
-1.5652	! 3
-1.4339	! 4
-1.1114	! 5
-2.2314	! 6
-2.7956	! 7
-1.4339	! 8
-1.5324	! 9
-1.0769	! h
-1.3977	! {
-2.0967	! o
-1.0347	! u
-1.1690	! }
-0.7477	! [
-3.2728	! A
-3.2728	! C
-1.5019	! F
-2.5738	! I
-3.2728	! K
-3.2728	! M
-2.2314	! O
-2.3185	! S
-1.6817	! T
-1.8748	! U
-1.5826	! W
-1.6196	! X
-1.3473	+ 1
-0.6483	+ 2
-1.6688	+ 3
-1.4526	+ 4
-1.4043	+ 5
-3.1602	+ 6
-1.4526	+ 8
-1.1390	+ 9
-0.9427	+ h
-3.1602	+ j
-1.5070	+ {
-1.9841	+ o
-3.1602	+ !
-0.9272	+ u
-1.2206	+ }
-1.1558	+ [
-1.3608	+ F
-3.1602	+ K
-3.1602	+ L
-3.1602	+ O
-1.9297	+ S
-1.8814	+ T
-1.9841	+ U
-2.4612	+ W
-1.7622	+ X
-3.1602	+ Y
-3.2302	u 1
-2.9750	u 2
-3.4521	u 3
-3.9292	u 4
-2.4979	u 6
-1.7389	u 8
-2.0780	u b
-1.2636	u e
-2.3851	u ~
-1.5472	u -
-3.4521	u h
-3.4521	u i
-3.9292	u .
-3.9292	u |
-2.0427	u {
-2.8878	u o
-1.5968	u f
-1.4683	u ?
-3.2302	u !
-2.6505	u +
-2.5675	u }
-3.2302	u [
-3.2302	u x
-3.9292	u ]
-1.2294	u @
-1.2174	u A
-1.3218	u B
-0.8468	u C
-1.1881	u D
-1.6574	u E
-3.2302	u F
-3.9292	u I
-1.5581	u J
-1.9607	u K
-1.5126	u L
-0.9784	u M
-1.3939	u N
-3.9292	u O
-3.9292	u P
-1.2544	u Q
-1.9424	u R
-3.9292	u U
-1.5159	u V
-2.5313	u W
-2.7531	u X
-1.0961	u Y
-2.4668	u Z
-3.3234	} 1
-4.1685	} 2
-3.1271	} 4
-3.6914	} 5
-3.1271	} 6
-2.7706	} 8
-3.6914	} 9
-1.6928	} b
-1.1275	} e
-2.0132	} ~
-1.6086	} -
-3.6914	} h
-3.3234	} i
-3.6914	} .
-3.6914	} |
-3.6914	} o
-1.7453	} f
-1.4955	} ?
-3.1271	} !
-2.3172	} +
-3.6914	} u
-3.2143	} [
-3.4695	} x
-3.6914	} ]
-1.0516	} @
-1.7355	} A
-1.3969	} B
-0.6478	} C
-1.2670	} D
-1.8740	} E
-3.4695	} F
-2.8897	} I
-1.5991	} J
-1.8163	} K
-2.2934	} L
-1.0277	} M
-1.8125	} N
-2.1642	} O
-4.1685	} P
-1.2024	} Q
-1.8525	} R
-4.1685	} U
-1.5442	} V
-2.1908	} W
-2.3424	} X
-1.0733	} Y
-2.8463	} Z
-1.8232	[ 1
-1.9706	[ 2
-2.0578	[ 3
-2.2259	[ 4
-2.6045	[ 5
-1.9450	[ 6
-2.1809	[ 8
-2.4477	[ 9
-1.8835	[ b
-1.3741	[ e
-1.9369	[ ~
-1.6064	[ -
-1.8980	[ h
-2.9248	[ i
-3.4891	[ ,
-3.1211	[ .
-2.8523	[ |
-2.3130	[ {
-1.9706	[ o
-1.5989	[ f
-1.6807	[ ?
-2.2587	[ !
-1.7540	[ +
-1.6898	[ u
-1.2647	[ }
-3.2673	[ [
-3.9662	[ ]
-1.3159	[ @
-1.4877	[ A
-1.4234	[ B
-1.3440	[ C
-1.3718	[ D
-2.6440	[ E
-1.8556	[ F
-3.4891	[ G
-1.7815	[ I
-1.3808	[ J
-1.3674	[ K
-1.8295	[ L
-1.2142	[ M
-1.9706	[ N
-1.2877	[ O
-1.1976	[ Q
-2.2259	[ R
-3.2673	[ S
-3.9662	[ T
-3.4891	[ U
-1.5084	[ V
-1.6179	[ W
-2.0578	[ X
-1.1917	[ Y
-2.9248	[ Z
-1.6164	x 1
-1.7881	x 2
-1.4201	x 3
-1.6534	x 4
-3.3066	x 5
-2.0762	x 6
-1.5358	x 7
-1.3982	x 8
-1.7881	x 9
-2.1305	x b
-3.3066	x c
-1.3476	x e
-2.1305	x ~
-1.1699	x h
-2.6077	x i
-2.8295	x j
-1.6345	x ,
-1.7881	x |
-1.6939	x {
-2.1927	x o
-2.8295	x f
-2.3524	x ?
-2.2652	x !
-2.4615	x +
-1.1763	x u
-0.7189	x }
-1.3289	x [
-1.8753	x @
-2.1305	x A
-2.6077	x C
-2.1305	x F
-1.5358	x G
-1.8753	x I
-1.8442	x J
-2.4615	x K
-2.3524	x L
-2.1927	x M
-1.3876	x O
-1.5073	x Q
-2.3524	x R
-2.0762	x S
-1.9087	x T
-1.3382	x U
-3.3066	x V
-2.1305	x W
-1.9087	x X
-1.2202	] 1
-1.3178	] 2
-1.3736	] 3
-1.4376	] 4
-1.7902	] 5
-1.5017	] 6
-2.5579	] 7
-1.7973	] 8
-2.0672	] 9
-3.8801	] b
-2.9259	] e
-2.4822	] ~
-1.6037	] h
-1.2924	] i
-2.0168	] j
-1.9307	] ,
-2.9259	] .
-2.8387	] |
-1.6842	] {
-1.5477	] o
-2.1093	] f
-3.8801	] ?
-2.1899	] !
-3.4030	] +
-1.6574	] u
-1.0665	] }
-1.5946	] [
-1.1502	] A
-2.9259	] B
-2.9259	] C
-1.6471	] F
-2.0948	] G
-2.4488	] I
-3.8801	] J
-2.1243	] K
-1.1873	] L
-1.0198	] M
-1.9936	] N
-1.6954	] O
-3.8801	] P
-2.2673	] Q
-2.7040	] R
-1.8758	] S
-2.3888	] T
-1.8673	] U
-3.0350	] V
-1.2517	] W
-1.5642	] X
-2.8387	] Y
-3.4419	@ 3
-3.9190	@ 7
-2.3279	@ a
-3.9190	@ b
-2.5210	@ c
-2.0677	@ d
-2.1481	@ ~
-3.4419	@ h
-3.9190	@ |
-3.9190	@ o
-2.3508	@ f
-2.4005	@ g
-3.9190	@ ?
-3.2200	@ !
-3.2200	@ u
-3.9190	@ }
-3.4419	@ [
-2.8050	@ x
-0.0797	@ ]
-3.9190	@ A
-2.3279	@ B
-2.3279	@ C
-1.9599	@ H
-2.7429	@ I
-3.2200	@ K
-1.5947	@ M
-1.9412	@ N
-2.4876	@ O
-1.2350	@ P
-3.9190	@ Q
-2.6885	@ R
-3.9190	@ S
-2.8776	@ V
-2.8776	@ W
-3.2200	@ X
-3.9190	@ Y
-1.4952	A 1
-1.3206	A 2
-1.6437	A 3
-1.5013	A 4
-1.7977	A 5
-1.1858	A 6
-1.8297	A 8
-1.2776	A 9
-2.1616	A b
-3.9469	A c
-3.9469	A d
-1.3352	A e
-2.1081	A ~
-2.1476	A -
-1.3331	A h
-3.9469	A i
-2.8330	A j
-2.9927	A ,
-2.5852	A |
-1.8862	A {
-1.2721	A o
-1.7510	A f
-2.7165	A ?
-2.9927	A !
-2.4845	A +
-1.2154	A u
-1.2559	A }
-0.8688	A [
-1.9095	A @
-3.9469	A A
-1.7566	A B
-2.4845	A C
-1.4952	A F
-2.4029	A G
-2.3342	A I
-1.8297	A J
-2.0836	A K
-2.3787	A L
-1.7089	A M
-2.5852	A N
-1.7139	A O
-1.6569	A Q
-2.1911	A R
-1.9976	A S
-2.0279	A T
-2.0719	A U
-2.1340	A V
-1.8297	A W
-2.1616	A X
-1.6751	A Y
-3.2480	A Z
-1.6475	B 1
-1.4113	B 2
-1.2412	B 3
-1.5303	B 4
-2.3193	B 5
-1.3180	B 6
-3.8378	B 7
-1.7925	B 8
-1.3260	B 9
-2.6074	B a
-1.4742	B b
-3.1389	B d
-2.0249	B e
-1.8335	B ~
-1.3128	B h
-2.2251	B i
-2.6074	B ,
-1.9866	B |
-1.8511	B {
-1.1837	B o
-2.0249	B f
-2.4761	B ?
-2.4761	B !
-2.2696	B +
-1.4017	B u
-1.1160	B }
-1.3180	B [
-2.0118	B @
-1.9188	B A
-2.0249	B C
-1.5303	B F
-2.3465	B G
-3.8378	B H
-2.0118	B I
-1.1144	B J
-2.2044	B K
-2.3465	B L
-1.7409	B M
-2.6074	B N
-1.3313	B O
-3.8378	B P
-1.7623	B Q
-2.7239	B R
-2.9927	B S
-1.7848	B T
-2.0385	B U
-2.7964	B V
-2.0249	B W
-1.8694	B X
-1.4668	B Y
-1.5445	C 1
-1.9775	C 2
-1.6586	C 3
-2.0266	C 4
-1.9775	C 5
-1.6748	C 6
-4.0948	C 7
-2.1080	C 8
-1.8826	C 9
-4.0948	C a
-1.6951	C b
-2.6968	C c
-1.8934	C d
-1.0577	C e
-1.4894	C ~
-3.1405	C -
-1.6048	C h
-2.3705	C i
-4.0948	C j
-3.6176	C ,
-2.1170	C |
-2.5037	C {
-1.9580	C o
-1.7873	C f
-2.3094	C ?
-2.6634	C !
-1.7664	C +
-1.4916	C u
-1.3713	C }
-1.3897	C [
-2.3705	C x
-4.0948	C ]
-1.7349	C @
-1.8092	C A
-1.7311	C B
-1.5882	C F
-2.6968	C G
-1.9216	C I
-1.8989	C J
-1.4705	C K
-2.0573	C L
-1.1508	C M
-1.9580	C N
-1.3915	C O
-2.6324	C P
-0.8661	C Q
-2.5507	C R
-2.5037	C T
-1.8989	C U
-2.2559	C V
-1.8371	C W
-1.9334	C X
-1.3427	C Y
-2.9187	C Z
-2.1476	D 1
-2.9009	D 2
-2.0993	D 3
-2.2641	D 4
-2.6791	D 5
-2.0993	D 6
-2.0993	D 8
-1.6072	D b
-2.9009	D d
-1.5927	D e
-1.5392	D ~
-2.3366	D h
-3.3780	D i
-2.0993	D |
-2.1476	D {
-3.3780	D o
-1.5787	D f
-1.8595	D g
-1.0836	D ?
-1.9801	D !
-1.4695	D +
-1.5392	D u
-1.2542	D }
-2.0558	D [
-2.1476	D ]
-0.9232	D @
-1.8098	D A
-1.7870	D B
-1.9156	D C
-2.6791	D F
-1.7059	D I
-1.7059	D J
-1.5030	D K
-1.5268	D L
-1.4190	D M
-1.8867	D N
-0.9515	D O
-1.4590	D Q
-2.2641	D R
-1.9467	D V
-1.3568	D W
-1.7248	D X
-1.5268	D Y
-3.3780	D Z
-1.7003	E 1
-2.0902	E 2
-1.4240	E 3
-1.8094	E 4
-2.0902	E 5
-0.9248	E 6
-2.6545	E 7
-0.9302	E 8
-1.9012	E 9
-1.5876	E h
-1.7003	E i
-3.1316	E ,
-1.2928	E {
-1.7337	E o
-0.9703	E u
-0.5741	E }
-0.8461	E [
-2.2865	E F
-3.1316	E G
-2.6545	E K
-3.1316	E S
-2.6545	E X
-2.1214	F 1
-2.3432	F 2
-2.3432	F 3
-1.9752	F 4
-2.5651	F 5
-1.9511	F 6
-2.4054	F 8
-2.3432	F 9
-1.6680	F b
-1.6442	F e
-1.9511	F ~
-1.5237	F -
-2.1971	F h
-3.0422	F i
-3.5193	F j
-3.5193	F ,
-3.5193	F |
-2.8203	F {
-2.8203	F o
-1.8291	F f
-1.7950	F ?
-2.6742	F !
-2.0279	F +
-2.1576	F u
-1.5798	F }
-2.6742	F [
-1.2475	F @
-1.0322	F A
-1.3461	F B
-0.9790	F C
-2.6742	F D
-1.9511	F E
-2.8203	F F
-3.5193	F G
-2.1214	F I
-1.3346	F J
-1.6217	F K
-2.2405	F L
-1.0961	F M
-1.6217	F N
-1.6932	F O
-1.3234	F Q
-1.5798	F R
-1.1710	F V
-1.7485	F W
-2.8203	F X
-1.1446	F Y
-2.1576	F Z
-2.7839	G 1
-2.0849	G 2
-2.0849	G 4
-2.7839	G 6
-2.0849	G 8
-1.3525	G b
-1.6700	G e
-1.6700	G ~
-1.6078	G -
-2.0849	G i
-1.8297	G {
-2.3068	G o
-1.6700	G ?
-1.6078	G u
-1.3525	G }
-1.7425	G [
-2.3068	G @
-1.1504	G A
-2.0849	G B
-0.8754	G C
-1.8297	G D
-1.6078	G E
-1.6700	G J
-1.2398	G K
-0.7308	G M
-1.4222	G N
-2.7839	G Q
-2.7839	G W
-1.6700	G X
-1.0435	G Y
-1.2471	H 1
-1.5467	H 2
-1.9287	H 3
-1.7012	H 4
-1.9147	H 5
-1.5126	H 6
-2.4835	H 7
-1.1002	H 8
-1.5710	H 9
-3.2369	H c
-3.2369	H e
-2.4835	H ~
-1.4151	H h
-1.5837	H i
-2.5379	H ,
-1.3429	H {
-1.3504	H o
-3.2369	H f
-3.7140	H g
-2.8689	H ?
-2.7598	H !
-3.2369	H +
-1.3980	H u
-1.3657	H }
-1.3938	H [
-3.0150	H @
-0.8873	H A
-2.6726	H C
-1.5237	H F
-1.7272	H G
-2.7598	H I
-3.7140	H J
-2.7598	H K
-0.8169	H L
-1.5126	H M
-2.7598	H N
-1.8879	H O
-2.4352	H Q
-2.6726	H R
-1.9011	H S
-2.4352	H T
-2.6001	H U
-2.1458	H W
-1.7646	H X
-3.2369	H Y
-2.0748	I 1
-2.0205	I 2
-2.2967	I 3
-1.8530	I 4
-1.7068	I 6
-2.7738	I 7
-3.2509	I 8
-2.7738	I 9
-1.1827	I a
-2.4058	I b
-1.5977	I d
-3.2509	I e
-1.1978	I ~
-1.7885	I h
-3.2509	I i
-2.7738	I ,
-2.7738	I {
-2.7738	I o
-1.5607	I f
-1.9722	I g
-1.2297	I !
-2.5519	I +
-1.7324	I u
-1.3318	I }
-2.2967	I [
-2.5519	I x
-1.5433	I ]
-2.0205	I A
-1.3215	I B
-1.2919	I C
-1.9287	I H
-0.7695	I K
-1.6381	I L
-1.3533	I M
-1.5788	I N
-1.4801	I P
-3.2509	I Q
-1.8892	I R
-3.2509	I U
-2.5519	I V
-1.1271	I W
-1.7068	I X
-2.2967	I Y
-2.7690	J 6
-3.7233	J 7
-3.2462	J 8
-2.0512	J a
-2.6819	J c
-2.4445	J d
-2.0898	J ~
-3.7233	J j
-3.2462	J {
-2.4928	J f
-2.6819	J g
-3.2462	J !
-2.7690	J }
-2.7690	J x
-2.2919	J ]
-2.2319	J B
-2.1105	J C
-0.0601	J H
-2.5472	J I
-2.7690	J K
-3.2462	J L
-1.8844	J M
-2.6819	J N
-1.9524	J O
-1.5274	J P
-2.6819	J R
-2.6093	J V
-2.6093	J W
-2.7690	J Y
-1.2075	K 1
-1.0797	K 2
-1.2485	K 3
-1.1677	K 4
-1.6925	K 5
-1.2661	K 6
-3.0310	K 7
-2.2676	K 8
-1.3975	K 9
-3.0310	K a
-2.7757	K b
-3.2529	K c
-2.8849	K d
-3.0310	K e
-3.2529	K ~
-0.9658	K h
-2.8849	K i
-1.8549	K ,
-1.8109	K {
-1.3269	K o
-2.3320	K f
-3.2529	K g
-3.7300	K ?
-2.6886	K !
-2.5539	K +
-1.0797	K u
-1.0131	K }
-1.3778	K [
-2.7757	K ]
-2.7757	K @
-1.4628	K A
-1.8006	K B
-2.0057	K C
-1.3408	K F
-2.1618	K G
-2.7757	K H
-2.4078	K I
-3.7300	K J
-2.0057	K L
-2.3682	K M
-3.2529	K N
-2.2115	K O
-3.2529	K Q
-3.2529	K T
-3.0310	K U
-3.0310	K V
-1.6847	K W
-2.0224	K X
-3.7300	K Y
-1.4236	L 1
-1.3309	L 2
-1.4043	L 3
-1.7539	L 4
-1.9936	L 5
-1.6725	L 6
-3.1263	L 7
-1.9757	L 8
-1.3704	L 9
-1.9107	L b
-3.9714	L c
-1.3770	L e
-2.1080	L ~
-1.5320	L -
-1.1727	L h
-2.2638	L i
-2.2993	L j
-2.9300	L ,
-2.7953	L {
-1.3021	L o
-2.0220	L f
-2.1325	L ?
-2.6096	L !
-2.6926	L +
-1.1868	L u
-1.0787	L }
-0.8797	L [
-3.2724	L x
-1.7592	L @
-1.8160	L A
-1.6192	L B
-1.8958	L C
-2.4032	L E
-1.4043	L F
-2.3803	L G
-3.0171	L I
-2.0737	L J
-1.9585	L K
-1.7982	L M
-2.2310	L N
-2.2638	L O
-1.7137	L Q
-2.9300	L R
-2.6491	L S
-1.8221	L T
-1.6769	L U
-2.6096	L V
-2.0629	L W
-2.6491	L X
-2.2155	L Y
-3.1263	L Z
-2.1623	M 1
-2.1140	M 2
-1.5018	M 3
-1.7885	M 4
-2.9778	M 5
-1.4929	M 6
-1.9879	M 7
-1.9745	M 8
-1.6921	M 9
-1.8487	M b
-4.0917	M c
-1.9879	M e
-1.9879	M ~
-1.3766	M h
-2.5477	M i
-2.9778	M j
-2.1941	M ,
-3.6146	M .
-1.2460	M |
-1.7929	M {
-1.9614	M o
-1.7593	M f
-2.2405	M ?
-1.9425	M !
-3.1375	M +
-1.4951	M u
-1.1219	M }
-1.4864	M [
-1.1785	M @
-1.8690	M A
-2.6938	M B
-2.6604	M C
-1.8017	M F
-2.6004	M G
-1.7357	M I
-1.2069	M J
-1.8903	M K
-2.3514	M L
-2.6604	M N
-1.0247	M O
-3.3928	M P
-0.7294	M Q
-2.4015	M R
-2.7695	M S
-2.4790	M T
-2.0874	M U
-3.2466	M V
-2.1050	M W
-2.5732	M X
-3.1375	M Y
-1.6213	N 1
-1.9582	N 2
-1.9893	N 3
-1.5694	N 4
-2.1419	N 5
-1.6213	N 6
-2.4664	N 7
-1.9893	N 8
-2.2445	N 9
-3.4206	N b
-3.4206	N c
-2.2445	N e
-3.4206	N ~
-1.5456	N h
-1.6963	N i
-0.8879	N ,
-3.4206	N .
-1.2968	N |
-1.4811	N {
-1.8524	N o
-1.9293	N f
-2.3067	N ?
-3.4206	N !
-1.3168	N u
-0.6988	N }
-1.0646	N [
-2.2445	N @
-1.9582	N A
-2.5755	N B
-2.5755	N C
-1.6963	N F
-2.4664	N I
-2.1902	N J
-2.9435	N K
-1.7485	N L
-1.9893	N M
-1.7871	N O
-1.2247	N Q
-2.3792	N R
-1.6353	N S
-2.2445	N T
-1.6498	N U
-2.3067	N V
-2.3067	N X
-2.4664	N Y
-2.8081	O 1
-2.6513	O 2
-2.6257	O 3
-2.6513	O 4
-3.6927	O 5
-2.2722	O 6
-2.9393	O 7
-4.1698	O 8
-2.5166	O 9
-1.6770	O a
-3.4708	O b
-2.3705	O c
-1.7465	O d
-3.3247	O e
-0.9406	O ~
-2.6016	O h
-4.1698	O i
-3.6927	O j
-3.2155	O ,
-2.5787	O o
-2.1486	O f
-2.2013	O g
-1.3549	O !
-3.1284	O +
-2.1830	O u
-2.0942	O }
-2.8476	O [
-2.1830	O x
-1.6970	O ]
-4.1698	O @
-2.2833	O A
-1.8100	O B
-1.9218	O C
-3.2155	O F
-1.9630	O H
-4.1698	O I
-1.2512	O K
-1.9317	O L
-1.6827	O M
-1.9851	O N
-1.7336	O P
-4.1698	O Q
-2.6784	O R
-2.6513	O V
-1.4177	O W
-2.0660	O X
-4.1698	O Y
-0.3011	O </s>
-1.5338	P 1
-1.4335	P 2
-1.6695	P 3
-1.6644	P 4
-2.4995	P 5
-1.5012	P 6
-1.5452	P 7
-1.3571	P 8
-1.4808	P 9
-2.7213	P b
-3.1984	P ~
-1.3008	P h
-3.0523	P i
-2.9432	P j
-2.4660	P ,
-3.8974	P .
-2.7213	P |
-1.6397	P {
-1.4549	P o
-2.0109	P f
-2.6670	P ?
-1.9680	P !
-2.7835	P +
-1.2836	P u
-0.9165	P }
-1.3075	P [
-2.3292	P @
-2.7835	P A
-2.8560	P B
-3.8974	P C
-1.9783	P F
-2.7835	P G
-1.8931	P I
-3.1984	P J
-1.8762	P K
-1.0014	P L
-1.2609	P M
-2.4660	P N
-1.2836	P O
-3.0523	P Q
-3.8974	P R
-2.0341	P S
-1.6960	P T
-1.1229	P U
-3.1984	P V
-1.8931	P W
-2.4060	P X
-3.1046	Q 2
-3.1046	Q 4
-3.2137	Q 6
-1.8208	Q a
-3.5817	Q b
-0.9062	Q c
-1.7428	Q d
-3.5817	Q e
-1.6258	Q ~
-3.3598	Q h
-4.0588	Q i
-2.3686	Q ,
-2.0376	Q f
-2.3345	Q g
-4.0588	Q ?
-2.5674	Q !
-2.3867	Q +
-3.0174	Q u
-2.6609	Q }
-2.5674	Q x
-1.8258	Q ]
-4.0588	Q @
-2.1723	Q A
-1.9550	Q B
-2.0545	Q C
-4.0588	Q F
-1.8856	Q H
-2.0214	Q I
-1.8915	Q K
-2.2880	Q L
-1.1168	Q M
-2.4056	Q N
-1.5312	Q O
-0.2385	Q P
-2.7801	Q R
-2.8284	Q V
-2.3345	Q W
-2.4906	Q X
-2.9449	Q Y
-3.1732	R 1
-1.8944	R 2
-2.0592	R 3
-1.6547	R 4
-1.7752	R 5
-1.4173	R 6
-2.1318	R 7
-1.5821	R 8
-2.6961	R 9
-1.9971	R b
-1.5011	R e
-2.2189	R ~
-1.6050	R h
-3.1732	R i
-3.1732	R ,
-3.1732	R .
-1.6291	R |
-1.3343	R {
-2.1318	R o
-1.7108	R f
-2.4742	R ?
-1.7418	R !
-3.1732	R +
-0.8096	R u
-1.1201	R }
-1.1201	R [
-1.7108	R @
-1.8944	R A
-3.1732	R B
-2.3281	R C
-3.1732	R F
-1.7752	R I
-1.5604	R J
-1.8115	R K
-0.8922	R L
-1.8115	R M
-2.6961	R N
-1.4489	R O
-1.9971	R Q
-3.1732	R S
-2.0592	R U
-1.8510	R V
-2.1318	R W
-1.9971	R X
-2.3281	R Y
-3.0000	S 1
-3.0000	S 5
-2.0458	S 6
-1.6383	S b
-0.5867	S e
-2.0458	S ~
-0.9393	S -
-2.3010	S {
-3.0000	S o
-2.0458	S f
-2.1549	S ?
-3.0000	S !
-2.3010	S +
-2.5229	S }
-0.6799	S @
-1.0410	S A
-1.6383	S B
-2.0458	S C
-3.0000	S E
-3.0000	S F
-2.3010	S J
-2.1549	S K
-1.7696	S L
-1.5086	S M
-1.7696	S N
-1.3098	S Q
-3.0000	S R
-2.0458	S V
-1.9586	S W
-3.0000	S X
-1.4089	S Y
-1.6265	T 1
-1.7940	T 2
-1.7023	T 3
-1.9105	T 4
-2.3255	T 5
-1.1984	T 6
-1.7457	T 8
-2.5474	T 9
-1.9105	T b
-1.9831	T e
-1.7940	T ~
-2.3255	T -
-1.5621	T h
-1.5621	T i
-3.0245	T ,
-2.3255	T {
-1.6628	T o
-1.5931	T f
-2.3255	T ?
-3.0245	T !
-1.9105	T +
-1.6265	T u
-1.4334	T }
-1.9831	T [
-1.9831	T @
-1.2392	T A
-1.2116	T B
-1.2116	T C
-2.5474	T E
-1.9831	T F
-2.1794	T G
-2.1794	T I
-1.5331	T J
-1.2251	T K
-1.9105	T L
-1.5331	T M
-2.0702	T N
-2.3255	T O
-1.5931	T Q
-2.5474	T R
-0.9871	T V
-1.3002	T W
-1.9831	T Y
-2.3255	T Z
-2.2238	U 1
-2.1320	U 2
-2.4128	U 3
-2.4128	U 4
-2.6091	U 5
-2.0563	U 6
-2.7553	U 8
-2.7553	U 9
-1.4675	U b
-1.1021	U e
-1.5352	U ~
-1.3239	U -
-2.4128	U h
-3.4542	U |
-2.5000	U {
-2.2781	U o
-1.7139	U f
-1.8632	U ?
-2.5000	U !
-1.6549	U +
-2.2781	U u
-1.7139	U }
-2.3403	U [
-1.5909	U @
-1.6984	U A
-1.1778	U B
-1.2014	U C
-1.9918	U E
-2.7553	U F
-2.5000	U I
-1.4012	U J
-1.4675	U K
-2.0229	U L
-1.1687	U M
-1.7300	U N
-1.5677	U O
-3.4542	U P
-1.2810	U Q
-1.6984	U R
-3.4542	U S
-3.4542	U T
-1.7139	U V
-1.6549	U W
-1.6549	U X
-0.9016	U Y
-2.0563	U Z
-1.7619	V 1
-1.3994	V 2
-2.1694	V 3
-1.8449	V 4
-2.4247	V 5
-1.2976	V 6
-1.0244	V 8
-1.6230	V 9
-2.0097	V b
-1.6230	V e
-1.3431	V ~
-1.3833	V h
-1.5879	V i
-3.1236	V j
-2.3220	V ,
-2.2028	V |
-1.3886	V {
-1.5401	V o
-2.1694	V f
-2.2785	V ?
-1.8449	V !
-2.2028	V +
-1.3528	V u
-1.1369	V }
-1.3833	V [
-1.6230	V @
-1.7031	V A
-1.7878	V B
-1.5326	V C
-2.0567	V F
-2.0822	V G
-2.3703	V I
-1.8154	V J
-1.9475	V K
-1.2116	V L
-1.4835	V M
-3.6008	V N
-1.9475	V O
-1.6817	V Q
-3.6008	V R
-3.6008	V T
-3.1236	V U
-1.9106	V W
-1.7747	V X
-1.6612	V Y
-2.5594	V Z
-1.3348	W 1
-2.3244	W 2
-1.0306	W 3
-1.2646	W 4
-2.5327	W 5
-0.9248	W 6
-2.9476	W 7
-1.5428	W 8
-1.2469	W 9
-3.6466	W ~
-1.1483	W h
-1.5163	W i
-2.6924	W ,
-1.3265	W {
-1.2646	W o
-1.0478	W u
-0.8563	W }
-1.0223	W [
-3.6466	W C
-2.3244	W F
-2.6052	W G
-1.3306	W S
-2.5327	W T
-2.8015	W U
-1.6087	X 1
-2.1849	X 2
-1.4600	X 3
-1.6268	X 4
-3.2989	X 5
-1.7803	X 6
-3.2989	X 7
-1.1375	X 8
-1.4476	X h
-2.2575	X i
-1.0558	X {
-2.4538	X o
-1.4238	X u
-1.0710	X }
-2.2575	X [
-3.2989	X A
-2.8217	X B
-1.9371	X F
-1.9371	X S
-1.1750	X T
-0.3403	X U
-1.8218	Y 1
-1.9177	Y 2
-1.7989	Y 3
-2.1112	Y 4
-3.0220	Y 5
-1.2512	Y 6
-2.3486	Y 7
-1.7304	Y 8
-2.2139	Y 9
-1.4278	Y b
-3.3900	Y d
-1.3661	Y e
-1.8377	Y ~
-1.7241	Y h
-2.9129	Y i
-2.6367	Y j
-1.8803	Y ,
-1.2387	Y |
-1.9695	Y {
-1.7498	Y o
-1.4924	Y f
-1.6998	Y ?
-1.5771	Y !
-2.1950	Y +
-1.3944	Y u
-0.9700	Y }
-1.5596	Y [
-1.4032	Y @
-1.9806	Y A
-1.9480	Y B
-1.7565	Y C
-2.2139	Y F
-1.5149	Y I
-1.8140	Y J
-1.3688	Y K
-1.9480	Y L
-2.4692	Y M
-3.1681	Y N
-0.9444	Y O
-1.4246	Y Q
-2.6910	Y R
-3.0220	Y S
-2.8257	Y T
-2.4357	Y U
-2.3230	Y V
-1.6392	Y W
-2.4692	Y X
-2.4742	Z 4
-1.9971	Z 6
-0.8021	Z 8
-2.4742	Z b
-1.3603	Z e
-1.7752	Z ~
-1.9971	Z i
-1.2981	Z ,
-2.4742	Z |
-1.1125	Z {
-2.4742	Z f
-2.4742	Z !
-2.4742	Z +
-1.9971	Z u
-0.8210	Z }
-2.4742	Z @
-1.6291	Z A
-2.4742	Z B
-2.4742	Z H
-1.9971	Z I
-1.9971	Z J
-1.7752	Z L
-1.7752	Z M
-1.3603	Z Q
-1.9971	Z S
-1.2438	Z T
-1.0763	Z U
-1.5200	Z W
-1.3603	Z X

\end\
