<CEPSNORM> <FBANK>
<MEAN> 40
 6.613297e+00 8.256858e+00 9.440200e+00 1.044706e+01 1.102298e+01 1.143113e+01 1.220583e+01 1.269837e+01 1.284896e+01 1.301278e+01 1.296022e+01 1.298275e+01 1.293882e+01 1.285654e+01 1.281225e+01 1.280327e+01 1.287144e+01 1.298399e+01 1.316275e+01 1.326219e+01 1.326890e+01 1.327059e+01 1.338957e+01 1.361253e+01 1.374998e+01 1.370004e+01 1.370074e+01 1.387329e+01 1.407345e+01 1.415002e+01 1.405559e+01 1.387809e+01 1.368396e+01 1.345051e+01 1.325251e+01 1.312709e+01 1.313996e+01 1.325676e+01 1.328910e+01 1.336428e+01
<VARIANCE> 40
 7.833808e+00 1.157366e+01 1.400300e+01 1.643394e+01 1.706685e+01 1.799871e+01 2.098749e+01 2.201436e+01 2.199810e+01 2.145225e+01 2.054860e+01 1.899620e+01 1.739019e+01 1.649805e+01 1.613587e+01 1.552231e+01 1.504253e+01 1.487103e+01 1.464489e+01 1.434175e+01 1.371811e+01 1.297667e+01 1.251960e+01 1.272978e+01 1.287855e+01 1.234709e+01 1.200339e+01 1.232244e+01 1.256668e+01 1.224799e+01 1.168217e+01 1.118957e+01 1.083442e+01 1.053912e+01 1.025781e+01 9.764833e+00 9.221748e+00 8.817122e+00 8.499856e+00 8.414978e+00
